137.383406642
-1005.50689613
499.005928444
430.833450147
521.605623851
-2778.790635
-54.1857482374
-157.2251842
273.163718429
253.85739415
-344.158667162
-1316.49622928
-677.97405986
-1487.41501474
-695.169209384
2363.08176016
-86.3298615921
-944.636406267
-301.739740771
-224.071699059
-349.779089362
-1526.19534358
-206.720375705
-749.681163414
-453.27001584
-265.76007626
-290.263632374
-2355.54648485
-423.302785522
-87.8383526881
-223.750863999
341.934887353
-3249.53262988
312.350603648
-159.517997516
-3343.54829104
-494.653013759
4569.85836185
-280.641721074
-287.825751115
-457.362457819
-745.059665785
-674.851008499
842.906320914
1875.63085598
36.2711730484
-3212.79159862
-473.127897537
-994.69477064
297.85976324
161.960639068
316.466889659
-452.699989653
135.901401467
-982.137735689
788.911092479
1081.96884651
-5.6386554047
-3315.92442003
316.291946196
-317.424496533
302.596567935
-793.674583756
312.239938339
-588.293476797
24.5684324037
999.246452979
3.64223440477
-1681.95391865
75.0902575004
-1416.78130415
28.0677053646
2249.79522293
21.6700360322
-2130.41329536
219.550441632
1000
-1000
-117.839915973
-21.0387227664
1187.47361186
-2372.95484496